{"layer_weight":[[[17.42350972948136,-16.5609070342542,-4.963108360882933],[7.904215739338514,14.322969303124541,-8.370404610815205],[-1.052182420425867,-3.3753102616175097,-1.650573441041106],[5.547202778702092,1.5033734944007289,6.495476784951575],[14.76523633496194,-18.74466199032563,-17.819305202999523],[-20.39483824713235,3.978869793363268,9.234166442407405]],[[-1.8266956360253006,2.8492734068546146],[6.086578603781769,-8.825009700205252],[-3.1243195682661966,3.6182558666578912],[-0.8384663515699275,-2.3589070305355717]],null],"layer_weight_delta":[[[-3.5452932696648613E-4,1.2652596840565446E-5,-0.0010135695016194961],[-2.8335061186647836E-4,9.328077988302234E-6,-8.500616757278557E-4],[-5.327827308132538E-4,1.5905859249173296E-5,-0.0014809741346279981],[-0.0024113339713430727,1.748057655361356E-5,-0.0041454034594839775],[-0.0019821949439013495,5.543049099478618E-6,-0.00312906636537207],[-0.002412011309075845,1.639711041012281E-5,-0.004155005640218508]],[[-1.0610981021592992E-4,-0.005163251347595885],[-4.421610472945633E-6,-1.0595394691314283E-6],[-3.4460482592334454E-5,-0.0015238419497685001],[-1.5553113452525792E-4,-0.006730768606112536]],null],"mobp":0.8,"rate":0.01,"layerErr":[[0.0,0.0,0.0,0.0,0.0],[-0.07656136823483918,9.130909330276646E-6,-0.09000938696949873],[-0.0052893460887536,-0.11499883918954086]],"layer":[[0.0642142915725708,0.05117257595062256,0.11380248069763184,1.0,0.8741775512695312],[0.370524620397159,8.997240756598535E-6,0.31622877484198625],[0.07564524837307822,0.4625855427273094]]}