{"layer_weight":[[[13.835779722965164,-10.733841996898342,-5.152821508064995,-2.8447066443016293,3.097438869419639,1.7752379718331905],[14.903318788476653,14.129236381525644,-2.9359762145620927,0.0,1.2106553356552192,0.0],[2.246140324929452,-12.458650027179015,-1.650573441041106,-3.3786554309587737,-3.4720252906701665,-3.0378732464812543],[8.71619096514256,2.0738308156968603,7.789241197122317,0.0,-1.565714744947754,-1.885429174133881],[14.254866335764586,-18.27816477914222,-15.422370423187605,4.473903360249613,-5.4365695965998695,0.725997625572707],[-17.205869623130788,7.803259050517598,8.668930252064259,-6.4000133264542844,-1.275058608153338,0.0]],[[-0.09170791090111052,0.4032386589222212,2.6089933800838656,-1.04255715139203,0.0,2.6184428480822914],[6.086578603781769,-8.825009700205252,3.081437011676848,3.2073848959694944,-1.6825363506434146,7.314561880606153],[-2.6918994441021917,7.114201690618117,0.0,2.762367040488133,-2.2016162370796115,-3.816236556639005],[-0.8384663515699275,-2.3589070305355717,2.532559702788121,0.7900070821191552,0.0,5.578984671092396],[0.0,0.0,4.532726598446794,0.0,-0.6668565418071877,7.697301392785684],[0.6981063021760443,2.1188906140142363,5.773945963291623,-1.8889291378712105,3.4961008576537393,-4.970719392092025]],[[-0.7265260078002402,1.3660869698576903,4.932103126187418,-2.055863583019213,-3.1444880274478315,0.0],[-1.434667977695331,-1.4795544747408789,-2.292464039690639,-1.5331664322525445,-0.3843418772085494,-2.3531209690915356],[0.0,1.9164123863772282,0.0,8.047740243899865,0.0,-1.376740781032355],[2.743763281099609,-2.859549778801341,0.0,4.013649332040094,-1.3608854548500053,2.16709682315426],[3.563365375229705,0.0,0.0,0.09398311260056857,1.3919395880341892,1.9799146033868151],[-1.4056064180113692,5.469029281958989,3.46446030934115,0.09161877884571101,-1.5076666512617418,-0.15157373445490752]],[[-1.2300361409325014,2.1534004773677164,0.0,0.0,0.0,0.0],[1.546458512669525,-3.980684511359561,3.6383324039057445,0.6881922546582393,2.299387177089085,3.7979371427511808],[-2.5543381874277475,0.5688654601237548,0.0,-2.5479641678128564,-3.645923985893413,-2.449441515670256],[-1.5288814135694615,-4.8616101422978835,-0.7032820410187153,0.01840132814300599,-2.157847191342043,-3.464786331644068],[5.917361804196496,-0.631160349601636,-1.624246554274519,0.0,-2.364829506652523,0.0],[-0.9404073246854576,-1.2488470672147818,0.0,2.1919367463122024,5.425447763738513,1.900243300949315]],[[-2.6794931684408185,1.2415767224550427,0.608003433569249,1.5994768036235874,0.30405610776325087,1.509690777210536],[-1.3630390058300916,-3.2829320408002873,-0.5256376582069118,0.0,0.0,0.0],[-2.831189799201205,-3.753666181913104,2.6143869760630167,0.0,-2.3424383376891704,0.0],[0.9348764169760901,2.1015124471022144,4.157645655032515,1.3878158293606448,0.0,1.2737352698029953],[0.0,0.0,0.13035973687326674,2.4762178294018273,3.6294457893809646,0.5845399116077337],[-4.6231498594230365,-3.703785764772217,3.0587803823255966,3.344197268816761,0.0,1.7325384826995878]],[[0.0,0.0,0.0,0.0,0.0,0.0],[0.0,0.0,0.0,0.0,0.0,0.0],[0.0,0.0,0.0,0.0,0.0,0.0],[0.0,0.0,0.0,0.0,0.0,0.0],[0.0,0.0,0.0,0.0,0.0,0.0],[0.0,0.0,0.0,0.0,0.0,0.0]]],"layer_weight_delta":[[[-3.5452932696648613E-4,-6.063554169838262,0.5298533719370672,-2.1579300237668058,3.56772355325534,0.0],[0.750044108065979,1.407286075858889,-8.500616757278557E-4,3.071556021372439,-0.32852654368058776,0.0],[0.2522087595941489,1.5905859249173296E-5,-0.8920956988353392,3.028253180866929,-2.955410592953066,-2.92908100764258],[-3.151550723594856,-4.379411750119729,1.4373064467044525,0.2877551626997299,0.0,3.763593655839208],[-0.0019821949439013495,5.543049099478618E-6,-0.00312906636537207,0.0,0.0,0.0],[-0.002412011309075845,-0.4570259526289444,-2.1247482669207023,-2.6347699956558914,0.760291759134593,0.0]],[[-1.7053779845768073,3.901136063293354,0.18666888978806462,1.4349466126928263,-2.898230314799134,-1.3919118460085853],[2.84165099793753,-1.0595394691314283E-6,-0.878193658938728,-3.1445789618009696,-0.1875614263984895,3.299031422061753],[-3.4460482592334454E-5,-5.601035425166572,3.992670528924198,-0.4948531772548552,0.0,-0.19283403433725788],[-0.05935233221349378,3.972470243102634,3.062001804655835,-4.481494122815644,0.0,-7.362233734876908],[0.0,-1.6100533469830314,-1.1559536068520835,-0.5396404066352289,0.0,-3.832804256309454],[-3.192829536315397,-2.6146486661397805,0.0,-4.30765991098291,1.023110772399761,-1.606508714622012]],[[-3.4100767084180177,-2.7231778476614705,-3.4214947569367773,0.0,0.0,-1.9116769866116323],[-0.294326097046695,0.0,0.0,0.0,3.8998149067552674,-3.8245636469112814],[0.0,0.0,-0.06864528789270885,-3.6821432086378483,-0.5695996883379282,1.2612461768285206],[-5.15416964635162,0.0,-5.237379012071293,0.8162406848517625,0.27073714479577315,-3.221644172009139],[0.0,0.22788658029572773,0.0,1.6680691618892665,0.0,1.7269832258758635],[-4.878062693671382,2.471464752889534,0.7928646771165351,0.1053854425384344,1.9911443731514211,-1.3729150151792764]],[[0.0,1.5909692629524006,-1.4551136605177009,2.7961715136606813,0.25463256818827773,0.12662471212316184],[0.8648319521221115,4.353131578496508,0.0,0.0,-3.4677114199519705,3.9514047622232553],[-1.871601925797826,0.0,-2.37643865670944,5.672859649814428,-2.0171103517413824,0.0],[-3.942334563542439,0.5657524441519461,-0.2627414553314589,2.9320330169084263,-2.903475503829445,0.961145192147109],[-1.402582093772426,1.887763375353165,-0.4811551460810586,-0.9365490837191031,0.0,-3.7593179986769645],[1.0052242699089389,0.4946179849691683,0.0,-5.6343177067034205,1.119067490830922,0.0]],[[-0.04725097437743475,0.0,-2.1742008989117068,3.629368056406422,0.0,0.0],[0.0,-0.6819114471232082,0.477369493190122,-0.8851221537092577,0.0,2.188561596180585],[-0.07805308476171202,1.9342011974197284,0.5890142458542371,-0.023775563044399206,-0.23415987717407472,-3.2986195831866914],[0.0,0.0,0.0,-4.002110642384493,-0.4166913446100118,0.0],[0.0,-4.7238771660916665,2.644778007970384,-0.16604504412552235,1.0820584004305678,-0.17942323945851957],[2.534522185352004,3.055938969999489,-5.766727065206225,0.06574071035898577,0.0,-4.979836714654507]],[[0.0,0.0,0.0,0.0,0.0,0.0],[0.0,0.0,0.0,0.0,0.0,0.0],[0.0,0.0,0.0,0.0,0.0,0.0],[0.0,0.0,0.0,0.0,0.0,0.0],[0.0,0.0,0.0,0.0,0.0,0.0],[0.0,0.0,0.0,0.0,0.0,0.0]]],"mobp":0.8,"rate":0.009999999776482582,"layerErr":[[0.0,0.0,0.0,0.0,0.0],[0.0,0.0,0.0],[0.0,0.0]],"layer":[[0.49242889404296875,0.0741718037923177,1.0,0.05869923273722331,0.4253424326578776],[0.38547996608399876,6.520036104205668E-8,0.13712533248860745],[0.22392376045137813,0.22654394540317893]]}