{"layer_weight":[[[13.835779722965164,-11.46349188105509,-4.963108360882933,-2.8447066443016293,4.345424241828079,1.7752379718331905],[10.668957687620798,15.18060936038825,-8.370404610815205,0.0,0.0,0.0],[-1.052182420425867,-9.965190121758715,-1.650573441041106,0.0,0.0,-3.0378732464812543],[5.547202778702092,2.0738308156968603,6.495476784951575,0.0,0.0,-1.885429174133881],[14.76523633496194,-18.74466199032563,-17.819305202999523,3.197686313191519,0.0,0.725997625572707],[-17.205869623130788,7.803259050517598,9.234166442407405,-6.4000133264542844,1.0079923184009338,0.0]],[[-2.6455204763892963,0.4032386589222212,2.6089933800838656,-2.474147124236847,0.0,0.0],[6.086578603781769,-8.825009700205252,0.0,3.823174271983638,0.0,3.740991621476926],[-3.1243195682661966,7.114201690618117,0.0,0.0,-1.9464774010074546,0.0],[-0.8384663515699275,-2.3589070305355717,0.0,-0.4361442340323274,0.0,0.24803252819943644],[0.0,0.0,0.6071146427933831,0.0,3.4146469563224864,3.920801392381115],[2.72852601875515,2.1188906140142363,3.651649849782495,0.0,0.0,-4.970719392092025]],[[0.0,0.0,4.932103126187418,0.0,0.0,0.0],[1.844845900936817,0.0,-2.292464039690639,-1.6028637344799046,-0.3843418772085494,0.0],[0.0,-1.9229593164037508,0.0,1.8160816200312144,0.0,-1.376740781032355],[2.795014972659412,-1.596993040658548,0.0,3.1920411412143403,0.0,2.16709682315426],[0.0,0.0,0.0,1.3271500300017616,1.3919395880341892,-1.253011926839279],[-1.4056064180113692,5.469029281958989,3.46446030934115,-0.4503640952879442,-3.481168327843334,-0.15157373445490752]],[[0.0,0.0,0.0,0.0,0.0,0.0],[0.0,-3.980684511359561,3.6383324039057445,0.0,2.299387177089085,0.0],[-2.5543381874277475,0.0,0.0,0.0,0.0,-2.3567572117448377],[-1.5288814135694615,-0.12289728784037823,0.0,-3.5095283178507612,-2.5109919630426036,0.0],[0.0,0.0,0.0,0.0,-3.2302872801737426,0.0],[-1.6921205235177839,0.0,0.0,0.0,5.425447763738513,0.0]],[[0.0,1.2415767224550427,1.2227931289796876,1.5994768036235874,-1.536452548833454,1.509690777210536],[-1.3630390058300916,-3.2829320408002873,-0.5256376582069118,0.0,0.0,0.0],[-3.657941645294864,0.0,5.372499770510861,0.0,0.0,0.0],[0.9348764169760901,0.0,4.935424285310142,1.3878158293606448,0.0,0.0],[0.0,0.0,1.9802059051193366,2.4762178294018273,3.6294457893809646,0.5845399116077337],[-1.8508878785533085,0.0,0.0,3.344197268816761,0.0,2.5581787873154678]],[[0.0,0.0,0.0,0.0,0.0,0.0],[0.0,0.0,0.0,0.0,0.0,0.0],[0.0,0.0,0.0,0.0,0.0,0.0],[0.0,0.0,0.0,0.0,0.0,0.0],[0.0,0.0,0.0,0.0,0.0,0.0],[0.0,0.0,0.0,0.0,0.0,0.0]]],"layer_weight_delta":[[[-3.5452932696648613E-4,1.2652596840565446E-5,-0.0010135695016194961,-2.1579300237668058,3.56772355325534,0.0],[0.750044108065979,-1.9136054547911252,-8.500616757278557E-4,0.0,0.7744962162307001,0.0],[0.2522087595941489,1.5905859249173296E-5,2.563268822986651,3.028253180866929,-1.7874853912684578,-2.92908100764258],[-3.151550723594856,-4.379411750119729,-0.24924865887185996,0.2877551626997299,0.0,0.9242233990380386],[-0.0019821949439013495,5.543049099478618E-6,-0.00312906636537207,0.0,0.0,0.0],[-0.002412011309075845,1.639711041012281E-5,-2.1247482669207023,0.0,0.0,0.0]],[[-1.7053779845768073,1.0887918648808623,-3.7253489637284662,0.0,-2.898230314799134,-1.3919118460085853],[-4.421610472945633E-6,-1.0595394691314283E-6,0.0,0.0,0.0,1.165690685204833],[-3.4460482592334454E-5,-2.669882535085022,3.992670528924198,-0.4948531772548552,0.0,-2.340889548079109],[-1.5553113452525792E-4,3.0716314101432043,0.10992702416269218,-4.481494122815644,0.0,0.0],[0.0,-1.019919436752999,0.8247223537798174,-0.5396404066352289,0.0,-3.832804256309454],[0.0,0.0,0.0,-0.3263092446664002,1.023110772399761,1.1410920647215859]],[[0.0,0.0,-3.4214947569367773,0.0,0.0,1.2192529297540293],[0.0,0.0,0.0,0.0,0.0,0.0],[0.0,0.0,0.0,-3.6821432086378483,0.0,1.2612461768285206],[-2.5332789535647358,0.0,-2.883584414826183,2.8434897327503563,0.0,-3.221644172009139],[0.0,0.22788658029572773,0.0,-1.3074167990799355,0.0,1.7269832258758635],[0.0,0.0,0.0,-1.627360135990112,0.395201523949261,-1.3729150151792764]],[[0.0,0.0,-1.5682441359346297,1.6137356536476064,0.0,0.0],[0.8735367221450696,2.0014757453915353,0.0,0.0,-3.4677114199519705,3.9514047622232553],[-7.55774322982947,0.0,0.0,3.8609857886594128,0.0,0.0],[-3.942334563542439,0.5657524441519461,-0.7922355464010691,0.0,-2.903475503829445,0.0],[-1.402582093772426,0.0,0.0,0.0,0.0,-1.4246142352595168],[1.0052242699089389,0.0,0.0,-5.6343177067034205,3.4691786294881037,0.0]],[[-0.04725097437743475,0.0,-2.1742008989117068,0.0,0.0,0.0],[0.0,-1.5369705119429007,3.9128761197985433,-3.294101757180707,0.0,0.0],[-0.3246275288626377,1.9342011974197284,-1.7454106455830587,3.138720787265825,-0.23415987717407472,-3.2986195831866914],[0.0,0.0,0.0,-0.09193963646351833,-0.4166913446100118,0.0],[0.0,-3.873976635650309,0.0,-0.16604504412552235,-0.1986026798949183,-1.010484707069243],[-2.7467707889193083,3.055938969999489,-1.8420381007275086,0.06574071035898577,0.0,-3.776392205679585]],[[0.0,0.0,0.0,0.0,0.0,0.0],[0.0,0.0,0.0,0.0,0.0,0.0],[0.0,0.0,0.0,0.0,0.0,0.0],[0.0,0.0,0.0,0.0,0.0,0.0],[0.0,0.0,0.0,0.0,0.0,0.0],[0.0,0.0,0.0,0.0,0.0,0.0]]],"mobp":0.8,"rate":0.009999999776482582,"layerErr":[[0.0,0.0,0.0,0.0,0.0],[0.0,0.0,0.0],[0.0,0.0]],"layer":[[0.0,0.0,0.0,0.0,0.0],[0.0,0.0,0.0],[0.0,0.0]]}