{"layer_weight":[[[17.42350972948136,-11.46349188105509,-4.963108360882933,-2.8447066443016293,4.345424241828079,0.0],[10.668957687620798,15.18060936038825,-8.370404610815205,0.0,0.0,0.0],[-1.052182420425867,-9.965190121758715,-1.650573441041106,0.0,0.0,-3.0378732464812543],[5.547202778702092,1.5033734944007289,6.495476784951575,0.0,0.0,-1.885429174133881],[14.76523633496194,-18.74466199032563,-17.819305202999523,3.197686313191519,0.0,0.725997625572707],[-17.205869623130788,7.803259050517598,9.234166442407405,-6.4000133264542844,1.0079923184009338,0.0]],[[-2.6455204763892963,2.8492734068546146,2.6089933800838656,-2.474147124236847,0.0,0.0],[6.086578603781769,-8.825009700205252,0.0,3.823174271983638,0.0,3.740991621476926],[-3.1243195682661966,3.6182558666578912,0.0,0.0,-1.9464774010074546,0.0],[-0.8384663515699275,-2.3589070305355717,0.0,0.0,0.0,0.0],[0.0,0.0,0.6071146427933831,0.0,3.3310965652474795,3.920801392381115],[2.72852601875515,2.1188906140142363,3.651649849782495,0.0,0.0,-1.969916447738811]],[[0.0,0.0,4.932103126187418,0.0,0.0,0.0],[1.844845900936817,0.0,-2.292464039690639,-1.6028637344799046,-0.2826269711521112,0.0],[0.0,0.0,0.0,1.8160816200312144,0.0,-1.376740781032355],[2.795014972659412,-1.596993040658548,0.0,3.1920411412143403,0.0,2.16709682315426],[0.0,0.0,0.0,1.3271500300017616,1.3919395880341892,0.0],[0.0,1.065086684282683,0.0,-0.4503640952879442,-0.4796709967611532,-0.15157373445490752]],[[0.0,0.0,0.0,0.0,0.0,0.0],[0.0,0.0,3.6383324039057445,0.0,2.299387177089085,0.0],[-2.5543381874277475,0.0,0.0,0.0,0.0,-2.3567572117448377],[-1.5288814135694615,-1.355751421130778,0.0,-3.5095283178507612,0.0,0.0],[0.0,0.0,0.0,0.0,-3.2302872801737426,0.0],[-1.6921205235177839,0.0,0.0,0.0,5.425447763738513,0.0]],[[0.0,1.2415767224550427,1.2227931289796876,1.5994768036235874,-1.536452548833454,1.509690777210536],[-1.3630390058300916,-3.2829320408002873,-0.5256376582069118,0.0,0.0,0.0],[-3.657941645294864,0.0,3.9860781915667642,0.0,0.0,0.0],[0.9348764169760901,0.0,4.935424285310142,1.3878158293606448,0.0,0.0],[0.0,0.0,3.403778634724339,0.2782835665580832,3.6294457893809646,0.0],[-1.8508878785533085,0.0,0.0,3.344197268816761,0.0,2.5581787873154678]],[[0.0,0.0,0.0,0.0,0.0,0.0],[0.0,0.0,0.0,0.0,0.0,0.0],[0.0,0.0,0.0,0.0,0.0,0.0],[0.0,0.0,0.0,0.0,0.0,0.0],[0.0,0.0,0.0,0.0,0.0,0.0],[0.0,0.0,0.0,0.0,0.0,0.0]]],"layer_weight_delta":[[[-3.5452932696648613E-4,1.2652596840565446E-5,-0.0010135695016194961,-2.1579300237668058,3.56772355325534,0.0],[0.750044108065979,-1.9136054547911252,-8.500616757278557E-4,0.0,0.0,0.0],[0.2522087595941489,1.5905859249173296E-5,2.563268822986651,0.0,-1.7874853912684578,0.0],[-3.151550723594856,-4.379411750119729,-0.24924865887185996,0.2877551626997299,0.0,0.0],[-0.0019821949439013495,5.543049099478618E-6,-0.00312906636537207,0.0,0.0,0.0],[-0.002412011309075845,1.639711041012281E-5,-0.004155005640218508,0.0,0.0,0.0]],[[-1.7053779845768073,-0.005163251347595885,-3.7253489637284662,0.0,-2.898230314799134,-1.3919118460085853],[-4.421610472945633E-6,-1.0595394691314283E-6,0.0,0.0,0.0,0.0],[-3.4460482592334454E-5,-0.0015238419497685001,0.0,0.0,0.0,0.0],[-1.5553113452525792E-4,-0.006730768606112536,0.10992702416269218,-3.8252818680534633,0.0,0.0],[0.0,1.6311700413604084,0.0,-0.5396404066352289,0.0,-1.8592491915926121],[0.0,0.0,0.0,-0.3263092446664002,1.023110772399761,1.1410920647215859]],[[0.0,0.0,-3.4214947569367773,0.0,0.0,0.0],[0.0,0.0,0.0,0.0,0.0,0.0],[0.0,0.0,0.0,0.30322951758827354,0.0,0.0],[-2.5332789535647358,0.0,0.0,2.9558873153594805,0.0,-3.221644172009139],[0.0,0.22788658029572773,0.0,0.0,0.0,1.7269832258758635],[0.0,0.0,0.0,-1.627360135990112,0.9667607538143663,0.0]],[[0.0,0.0,0.0,1.6137356536476064,0.0,0.0],[0.8735367221450696,2.0014757453915353,0.0,0.0,-3.4677114199519705,3.9514047622232553],[0.0,0.0,0.0,3.8609857886594128,0.0,0.0],[-2.9185026795307953,0.0,0.0,0.0,-2.903475503829445,0.0],[-1.8936739310618727,0.0,0.0,0.0,0.0,-1.4246142352595168],[1.0052242699089389,0.0,0.0,-3.1146116825533863,0.0,0.0]],[[-0.04725097437743475,0.0,-3.6058895914173137,0.0,0.0,0.0],[0.0,-1.5369705119429007,3.9128761197985433,0.0,0.0,0.0],[-0.3246275288626377,1.9342011974197284,-1.7454106455830587,0.0,-0.23415987717407472,0.0],[0.0,0.0,0.0,-0.09193963646351833,-0.4166913446100118,0.0],[0.0,-3.873976635650309,0.0,-0.16604504412552235,0.0,0.0],[-2.7467707889193083,3.055938969999489,0.0,-0.8665710548038241,0.0,-0.9523965217210515]],[[0.0,0.0,0.0,0.0,0.0,0.0],[0.0,0.0,0.0,0.0,0.0,0.0],[0.0,0.0,0.0,0.0,0.0,0.0],[0.0,0.0,0.0,0.0,0.0,0.0],[0.0,0.0,0.0,0.0,0.0,0.0],[0.0,0.0,0.0,0.0,0.0,0.0]]],"mobp":0.8,"rate":0.009999999776482582,"layerErr":[[0.0,0.0,0.0,0.0,0.0],[0.0,0.0,0.0],[0.0,0.0]],"layer":[[0.7041595458984375,0.44922115325927736,0.3440740203857422,0.21595375061035157,0.2609501075744629],[0.989488135181249,0.19078109596651815,0.1375294442989952],[0.06153385494475512,0.32615813870716864]]}