{"layer_weight":[[[-0.7056185952123113,-0.7665951238760131,0.12515809866947603,0.41172284962610295,3.2710585766975457,0.0],[0.6905446212639914,-4.798875490773497,0.5598728440557499,3.680804440679891,0.0,0.0],[-3.0866467317594175,0.0504227693318251,-0.7563515485758368,-3.2980094198183254,0.0,0.0],[0.6637298067216317,-3.700276866248974,0.8887545785070241,0.0,0.0,-6.0041687142554085],[-1.5953201832194863,0.27367146858112146,-2.9831883730904756,-2.9849629154033694,0.0,-1.442112861967832],[0.853816620672113,0.8618033630378452,1.5177665627486463,0.0,-5.225370131984397,-2.174147386663032]],[[0.9053552970037406,-0.7310127273516147,0.0,-4.4318858047841925,-2.1236856264079496,0.0],[-3.047202055986779,-0.14808782855408031,2.6015857617186837,-1.45835467476744,0.0,0.0],[-0.471691407667876,-0.9508472702867397,0.0,0.0,1.7341181882954064,0.0],[-0.18395470710912387,-0.2887543411380802,0.0,2.534563463415604,0.0,-1.3657522823540802],[-1.833281636931388,0.0,0.0,2.92100139658404,-2.3737397215728775,0.0],[0.0,0.0,-0.38765033202580934,0.0,-2.79926659492489,1.1178705207186272]],[[-0.39598165586451994,0.0,0.0,1.0245077417611546,1.6795917620259857,-2.665559418280723],[0.0,0.0,-2.299221214200042,0.0,2.054600973091473,0.0],[0.0,-3.9008750090610667,2.364471567598378,0.0,0.0,1.278437180897937],[-0.2580334318063704,0.0,2.6650186774877245,0.0,-1.9778400684600683,3.996103225699696],[0.0,0.0,0.4842644022124274,-3.806545938580867,0.0,0.0],[-1.0806684648965312,0.0,-2.8118269770960307,1.917855403165012,-6.475386081490126,-2.6919536333511376]],[[0.0,3.801074094815916,-1.8460696196912059,6.911424599951005,-3.7673058214175006,0.31761790759685216],[0.0,-3.2436982884643735,3.2722026695811346,0.0,0.0,0.0],[-1.4665452670401944,0.0,0.2617548357365802,0.0,-2.180653200357474,-1.077879941219325],[0.0,0.0,0.0,0.0,0.0,0.0],[0.0,-4.653858976969916,0.0,-1.0022758603477984,0.0,0.0],[0.0,0.0,0.0,0.0,0.0,3.0749942177577108]],[[-0.6376235747446009,-2.2872357570307607,0.0,-0.30803316621447685,2.152911464492772,0.0],[0.0,-0.15386042802071298,5.1471887144640505,0.0,-3.8358940310532708,3.070776684262891],[-1.6742022398066094,3.5037845811073183,0.0,-1.2049253529512,-0.7960364295656657,0.0],[-1.407906702207323,-0.011452890647474234,-2.4001996694847803,0.0,0.0,-3.8343034444306445],[0.0,0.0,0.0,0.0,0.0,0.0],[0.0,3.3814027680049543,0.0,0.0,0.0,0.0]],[[0.0,0.0,0.0,0.0,0.0,0.0],[0.0,0.0,0.0,0.0,0.0,0.0],[0.0,0.0,0.0,0.0,0.0,0.0],[0.0,0.0,0.0,0.0,0.0,0.0],[0.0,0.0,0.0,0.0,0.0,0.0],[0.0,0.0,0.0,0.0,0.0,0.0]]],"layer_weight_delta":[[[0.0,-2.614359145490483,-2.969929357658274,0.0,0.0,0.0],[0.0,-2.0861601054232626,0.0,0.06907601352919102,0.0,0.0],[0.0,0.0,-4.302043394023019,3.045438240995007,0.4464101301707677,0.0],[0.0,-1.1785607519484866,-0.10620774949008371,1.6448182061842198,0.0,0.0],[0.0,0.0,0.0,3.054709436337248,0.0,-1.7397788083726695],[3.767808400798083,-3.9983248847379986,2.6702576667179088,-0.2638789462600162,2.0471220438769686,0.0]],[[2.4280023933417665,-1.3179420543034377,0.0,0.0,0.0,0.0],[0.0,1.2927814945613196,0.0,0.0,0.0,0.0],[0.303668604721107,0.0,0.0,0.0,-4.0001978098539235,-2.344064545874674],[0.0,0.0,0.0,0.0,-2.380888161780078,0.0],[1.864017659657005,-1.4593455582708135,0.0,0.0,0.0,1.2289192834722984],[0.0,0.0,0.20973524851359038,0.0,-6.699547117838959,0.0]],[[-0.9240753383314573,-0.8016380434878254,1.891650323850067,0.0,0.0,-2.6587372261050968],[0.0,3.014432139680646,0.0,0.1900259824301429,0.7337429520792274,-2.7494326609736603],[-0.2892301488987066,0.0,0.48308817405958226,-3.052594552018965,0.0,0.0],[0.0,-3.09875760002358,-0.5093658462157622,3.2931109501708224,0.0,2.38834322183623],[0.0,0.0,-1.3107519198737725,0.0,0.0,-1.5470444399597723],[2.9115039324813807,0.0,1.1970773931524166,2.334319221800845,0.0,0.0]],[[0.0,1.480579776979119,0.0,0.0,-1.3154905792927067,0.0],[-1.3369332294689968,0.0,0.0,-0.8309212891478657,1.3646056647532694,-3.6675671061086286],[0.10304009715392226,3.3065777447732136,0.0,0.0,0.0,-0.40740143667183304],[-0.3738248467521368,-2.774188243412514,0.0,0.0,0.0,0.0],[0.0,0.0,0.0,-5.94792285629723,2.7667366483665896,-3.986691371441472],[0.0,0.6635775951321161,0.0,0.0,0.0,0.0]],[[0.0,0.0,-1.5473396493994889,0.0,0.0,2.317216132620308],[-6.462483284703646,0.0,0.0,0.0,-0.22506393345173858,0.0],[1.344531350419703,3.4372690492845415,0.519439119038867,0.0,2.2485256955077126,0.0],[0.0,0.0,-0.09658151613482868,0.0,0.0,1.6258622810621581],[-3.8367815513297305,0.0,0.0,-0.6468684673421805,0.0,0.0],[-0.9104959863720108,0.0,-0.5592468201863587,0.0,0.0,1.1581453366851902]],[[0.0,0.0,0.0,0.0,0.0,0.0],[0.0,0.0,0.0,0.0,0.0,0.0],[0.0,0.0,0.0,0.0,0.0,0.0],[0.0,0.0,0.0,0.0,0.0,0.0],[0.0,0.0,0.0,0.0,0.0,0.0],[0.0,0.0,0.0,0.0,0.0,0.0]]],"mobp":0.8,"rate":0.009999999776482582,"layerErr":[[0.0,0.0,0.0,0.0,0.0],[0.0,0.0,0.0],[0.0,0.0]],"layer":[[0.4274445088704427,0.7308646647135416,0.2725526936848958,0.1102298355102539,0.2522886657714844],[0.47160713680306887,0.03562969694121133,0.753924343592202],[0.44493100197620594,0.2049484633952621]]}