{"layer_weight":[[[3.0129174394688807,8.490108784967228,-2.9761035849217636,-3.3070449711044043,6.616089420902703,-4.90879823701094],[3.6730043944092694,-1.1989276184670778,6.69195917569157,-8.612083362197405,-0.49482245089084476,-1.8397096891465727],[8.583436941765155,-3.8756964451526525,-0.13732982983032116,3.5241239907174267,0.9484050998479825,4.495368108134735],[-4.834017423095135,-11.090871850799392,-1.2146851247339656,0.2160651706901877,3.278248229158641,-2.533938277409784],[-6.759131373568344,1.7934694768642556,-3.15309261483256,3.682318829737837,0.0,2.758492556337705],[2.2861307946344223,-2.438940298781673,0.09507880648610212,-0.23661352607357156,7.009445735968794,4.024687252278615]],[[0.6616134045891062,0.5210819110599549,-8.39397470453343,-0.22965632074359554,0.775527123317918,0.6996742429959202],[0.25209822042836416,2.441958863709738,1.219909254122852,-2.247852570007873,-2.6432342883805964,-2.72661942398528],[1.9218069976819772,-3.2706713605771673,-0.7470104334693097,0.6135550863594776,-9.614918785048634,4.02548263130357],[-2.935369753387613,-0.049490457472992855,6.261310708267801,2.277306962616551,7.54218951010973,-7.278910256749443],[4.440602200541632,2.667788399698109,0.0,-4.162718984247012,-1.2365388355852414,0.9253810597948373],[-4.628832698209519,-5.759635126630955,3.1394823887832795,0.0,2.50625016225412,-9.676592538746803]],[[-3.9579595542223505,-2.520806666420536,-2.7490695693916782,0.36888802303853296,1.524040689221251,-2.2485766918002765],[3.1334337618732437,1.4312222202247566,6.567816989219597,-7.313352353045108,4.058738476678783,12.439382428864933],[-1.778518611015798,-3.6966405331496466,2.9545494560173973,0.148208191212154,-2.124556671262752,2.189948913306985],[-1.492484921934012,-6.520733264989255,-4.723634442063177,0.5321599430322657,1.3481898280601925,7.899204448036137],[3.8037011372624336,-0.02654038374512968,-0.7874578254842977,4.543410686458441,2.445258087531788,-0.4704234087004977],[0.3925112928652359,1.384786080025746,-3.8139796447409937,-5.231237736955987,-0.5640799536450896,0.0]],[[-8.55610123132938,2.1567878355263073,1.3431417226558624,3.6467302598747784,-0.15535142111090394,5.390674015791463],[-2.0444902484949496,-4.187262837477434,-2.914533594377361,-5.393557314364167,2.1555330111771136,-7.525157698223154],[3.3618690853502544,5.2110612039617905,1.7459662876469757,1.712298881390308,-2.0647986259066577,1.5196534686750693],[3.8888671188706727,10.338664423342841,0.0,-4.206747783350728,-1.8659615602466229,-2.0422064790883683],[-10.89002065536563,2.0739848423219556,0.7324713694747196,1.6632095895137402,5.631165229414535,4.059037012445752],[9.250242466743908,-1.561090705452738,0.4905063883178018,0.0229354281955656,-2.9190989017472457,1.038112992264506]],[[3.2242526732406276,-5.703249292225326,1.9864736914182277,4.730891204054378,-2.3737288922014486,9.388866821715954],[4.235229810687752,3.3992042246797105,-2.9297804838919186,-1.981549125843788,2.774569468429977,6.710684655722741],[-2.59950166665591,-5.693513197132676,-2.7719727379728907,0.7299500024953893,-5.655527544730904,3.4889217020957766],[-7.208959082111793,-2.0522294345301892,-10.093849319522404,-0.33863708299831785,-4.476483726199855,0.062001018162275656],[6.611163664909213,1.3245377000891274,0.8481205259855376,0.0,-4.448055412309668,2.7416618640511734],[0.24154589214449995,-4.274010970169403,-0.06437965850358474,-2.5484097756275306,1.7491109304809331,4.445269729114892]],[[0.0,0.0,0.0,0.0,0.0,0.0],[0.0,0.0,0.0,0.0,0.0,0.0],[0.0,0.0,0.0,0.0,0.0,0.0],[0.0,0.0,0.0,0.0,0.0,0.0],[0.0,0.0,0.0,0.0,0.0,0.0],[0.0,0.0,0.0,0.0,0.0,0.0]]],"layer_weight_delta":[[[-0.27112106942258674,5.380582562810426,-0.6334264608454196,-2.2462943099384667,2.6778091455961173,0.0],[3.275337377466891,-0.8284901301672551,1.4923974744628952,0.0,-0.39765773613286903,3.3103180891808135],[2.368182310950333,2.9511619433264444,-9.118370596603427,3.5689993461321237,4.017135092063927,-3.7887994845697897],[-0.35858277479074463,0.3081094139416045,-0.7076272271553341,-3.7886714537258186,2.8207473418401365,1.270984959938101],[3.5546810041218517,0.9701789474610836,3.7769106631454497,0.08668339660618596,-5.313952187994733,1.9929913953141316],[-1.301784667872223,-4.99950303755375,-3.212038163982858,0.0,-2.969888510300618,2.6326434786094994]],[[4.3666671934999215,-5.111891822761316,-3.8197445761536706,-2.599827097410688,-0.513328333257542,-3.92793276129823],[2.0532736512628214,-3.729224462456213,5.009447263721451,1.815472700156075,-6.240406170256132,0.0],[-1.1936370825592517,3.602678770642016,-2.323618433171217,4.852134659608528,-8.122039960092952,-0.4859145745800779],[3.5889010875845706,0.24088065835576256,4.025302306644638,1.082648372650448,1.3933522017179776,0.0],[-5.99192167914301,1.2638408836979522,1.204938322044745,-7.1092932575323555,1.94726958850422,0.06276540056633007],[-3.301966605231656,0.0,2.919037736865545,-2.20963144679647,1.8936488698279854,-1.558019526224708]],[[-0.47045492239660813,0.07239360220769697,-1.637974741403534,0.11633044636208201,2.1364354135504824,0.116603688618099],[9.93064433364604,1.0539657206009725,-0.20883560657699451,4.536173239160471,5.8398755672299005,-1.332936052892765],[-3.046104512570187,-0.11092247082929063,-1.69268547262792,-8.347183115142913,2.42006897073337,4.885239425845153],[-5.469148427416333,2.5741849778037507,-1.0346180820950295,1.8641606755970637,0.036806991901454644,-2.727998767535042],[2.8681333519483667,-0.6411091482123528,2.5638130016187946,0.10729039138122509,4.990765311936934,4.47343805092372],[1.5036516094953738,3.2990212329228727,-2.015250376038173,3.648827417513372,0.06397890813927898,-2.353909046608071]],[[-5.31632985248993,6.954324085141946,2.9494028542102946,0.8016731764445142,4.118433038495864,-3.4932316381698376],[-1.0623351761752646,-1.98098894897071,-1.5910516226814577,0.0,2.535463836268981,0.6896433777955213],[-2.8689079965070254,3.5474820991807263,-3.3508337809698148,0.0,-4.031866752700932,-3.5875319348429286],[-9.933197023536339,7.535314817751037,0.0,-2.075907401272734,-3.5774026500001312,-6.0286703704690945],[3.307730321036888,1.961780001038722,0.0,0.5901309363126952,1.3900268143497945,-1.132138087196453],[7.457858932999965,-1.6629046242324925,-0.6588743652980638,9.695942608977385,-1.2592477690603268,3.7709923455728287]],[[-5.468734241345257,-0.9474600212124207,5.068997473433873,-4.435486728983259,-3.169310553462216,3.5161877753227238],[-3.334671057783968,7.237314510532888,1.897282568235937,0.7306254157240737,-0.7315903742163226,0.09568355129717432],[2.443933688223626,5.450249411426066,0.47195336271325417,0.0,2.3591000249527454,-2.9398375546573785],[5.779473300280033,6.028295345963961,3.303080358492161,-0.5416364937503104,-3.1795163251500815,-2.3317465914666604],[4.842911362554345,-0.5824911130135346,-2.7035741466964875,2.2009464551002713,0.13470428202891505,-0.04018177250873567],[-0.8533288668511538,-0.5036110941265761,-8.814991997476039,0.5089543385821464,0.7163803470246899,0.171126252756574]],[[0.0,0.0,0.0,0.0,0.0,0.0],[0.0,0.0,0.0,0.0,0.0,0.0],[0.0,0.0,0.0,0.0,0.0,0.0],[0.0,0.0,0.0,0.0,0.0,0.0],[0.0,0.0,0.0,0.0,0.0,0.0],[0.0,0.0,0.0,0.0,0.0,0.0]]],"mobp":0.8,"rate":0.009999999776482582,"layerErr":[[0.0,0.0,0.0,0.0,0.0],[0.0,0.0,0.0],[0.0,0.0]],"layer":[[0.10873472849527994,0.1308660634358724,0.7415458170572916,0.2027448527018229,0.12714369455973307],[0.9995096839092608,0.0014036636829788721,0.4745769388587937],[0.2039671332810791,0.2539942735676098]]}