{"layer_weight":[[[2.732167414736317,8.490108784967228,-2.9761035849217636,-0.9720037595681816,13.917366130056465,-1.4069589966743559],[3.6730043944092694,-1.1989276184670778,6.912958406729033,-5.404420053665921,1.4891544855049164,-1.8397096891465727],[12.014270323117126,-2.904040498355164,-1.1549258142351206,1.4674177926136363,0.9484050998479825,4.495368108134735],[-4.834017423095135,-11.090871850799392,-1.2146851247339656,-1.6993317974404691,3.278248229158641,-2.533938277409784],[-8.028138983670125,1.7934694768642556,-4.578044821535628,3.682318829737837,0.0,2.758492556337705],[2.2861307946344223,-1.7953077245202786,0.09507880648610212,1.257108825792196,7.009445735968794,4.024687252278615]],[[0.6616134045891062,0.5210819110599549,-5.355978066709196,-0.22965632074359554,0.775527123317918,0.6996742429959202],[0.25209822042836416,-1.766272011936982,-0.12492481890769547,-2.247852570007873,-2.6432342883805964,-7.882401835726885],[1.9218069976819772,-3.2706713605771673,-0.7470104334693097,0.7975323869435735,-8.40925746884383,6.82293048912248],[-2.935369753387613,-0.049490457472992855,6.261310708267801,3.7604916805999853,2.940895703597551,-7.278910256749443],[4.440602200541632,6.134031066865037,0.0,-4.162718984247012,-6.809840916040495,-2.783577279840669],[-4.628832698209519,0.07114891248005595,0.5341330874545269,1.3261234765654253,2.50625016225412,-8.391202733168882]],[[-3.9579595542223505,-2.520806666420536,-3.0496732676745992,-2.735579250197712,-1.8120743627361389,-2.2485766918002765],[-1.5743619649842318,1.4312222202247566,9.727276353958935,-5.238520571288347,4.4828855402958805,8.782772436659059],[-1.778518611015798,0.59696288437351,2.9545494560173973,3.1411317655552278,-2.124556671262752,2.189948913306985],[-1.492484921934012,-6.520733264989255,-0.4115114611177475,0.5321599430322657,1.3481898280601925,7.899204448036137],[3.8037011372624336,-0.02654038374512968,-0.7874578254842977,4.543410686458441,2.445258087531788,-1.2579114224530006],[0.3925112928652359,1.384786080025746,-3.8139796447409937,-3.5396949376202986,-0.5640799536450896,0.0]],[[-10.051100362736047,6.100646150510438,1.3431417226558624,7.162948162222973,-0.15535142111090394,1.7554912578811646],[4.380741424700473,-4.187262837477434,-1.8950593151341044,-7.9637110653882175,2.1555330111771136,-5.268158330299599],[3.3618690853502544,6.854071659288003,1.7459662876469757,1.712298881390308,-2.0647986259066577,-0.01969551444890527],[3.8888671188706727,10.338664423342841,-0.6266387246779157,-7.1816720537406935,-0.9220250259039897,-2.0422064790883683],[-10.89002065536563,-4.692070084904091,-2.703560314020261,1.6632095895137402,5.631165229414535,2.4706634920144888],[9.250242466743908,-1.561090705452738,-2.12195556106807,2.0419036657628444,-2.9190989017472457,1.038112992264506]],[[3.2242526732406276,-6.585919713847142,3.0788565090985136,4.730891204054378,-5.223541045080399,10.216278779334328],[2.4964884109593815,2.2619032888303625,-4.468867246150259,1.0875952008205347,2.774569468429977,6.710684655722741],[-2.59950166665591,-5.693513197132676,-2.677351898509454,0.39480220315612957,-5.655527544730904,3.2612218110398157],[-3.508222243886462,-2.0522294345301892,-10.093849319522404,1.859476098497872,-4.476483726199855,0.062001018162275656],[6.611163664909213,1.3245377000891274,0.8481205259855376,0.0,-8.121433849076755,4.190199068279863],[-1.045911798882802,-7.8478012479383,-0.06437965850358474,-3.029476769012426,1.155822086431896,6.0966849997622985]],[[0.0,0.0,0.0,0.0,0.0,0.0],[0.0,0.0,0.0,0.0,0.0,0.0],[0.0,0.0,0.0,0.0,0.0,0.0],[0.0,0.0,0.0,0.0,0.0,0.0],[0.0,0.0,0.0,0.0,0.0,0.0],[0.0,0.0,0.0,0.0,0.0,0.0]]],"layer_weight_delta":[[[-2.794719208657419,5.380582562810426,-0.6334264608454196,1.6323145305120308,2.6778091455961173,0.0],[0.37479797781951163,-0.8284901301672551,1.4923974744628952,0.0,-0.39765773613286903,3.3103180891808135],[2.368182310950333,0.10077608738261379,-9.118370596603427,3.5689993461321237,1.657586082852923,-3.7887994845697897],[-0.35858277479074463,-1.1023178043995712,-1.870309758391536,-3.7886714537258186,2.6494407448875696,3.7370663823784014],[3.5546810041218517,0.9701789474610836,0.033118192949957326,0.08668339660618596,-5.313952187994733,-1.2195706485802855],[-1.301784667872223,-4.99950303755375,0.43205190523668513,0.0,-2.969888510300618,2.2218417772809422]],[[4.3666671934999215,-5.111891822761316,-3.8197445761536706,-2.599827097410688,-0.513328333257542,-3.232798047564824],[2.0532736512628214,-3.729224462456213,4.719580867995254,1.815472700156075,-6.240406170256132,0.0],[-1.121873779052291,6.154899486500517,-2.323618433171217,4.852134659608528,-8.122039960092952,1.9299218771636113],[2.859959008331309,-0.019375831137561583,4.025302306644638,1.4030501837501124,-0.4122455050916569,0.22552262344348595],[-5.99192167914301,4.855667079764239,1.204938322044745,-3.205706499886948,3.28788143835024,0.06276540056633007],[-3.301966605231656,0.0,2.919037736865545,-4.999333490893788,1.8936488698279854,-4.602094467110922]],[[-0.47045492239660813,0.07239360220769697,-1.637974741403534,2.932807490005831,2.1364354135504824,0.116603688618099],[10.133721188613608,1.0539657206009725,-0.20883560657699451,5.518466820930139,5.8398755672299005,-5.52827150897888],[-5.348788785314008,-0.11092247082929063,-1.69268547262792,-8.347183115142913,-0.4174092765560129,4.885239425845153],[-5.469148427416333,2.182611960221692,-1.3058760640882854,3.0973678014787813,0.148812562879586,1.7661066083789807],[2.8681333519483667,-4.532221453378403,0.7207190726257409,-3.0901108174878402,4.990765311936934,4.47343805092372],[-0.3077381317916563,-0.2929047315172637,-2.015250376038173,4.091255674557583,0.06397890813927898,-0.31773561706908193]],[[-1.477456566592842,6.954324085141946,1.0207805842525213,2.606097049897844,4.118433038495864,-3.4932316381698376],[-1.0623351761752646,-0.9343733448493499,-1.5910516226814577,0.0,3.1263700349167385,0.6896433777955213],[-2.8689079965070254,3.5474820991807263,-3.3508337809698148,0.0,-4.031866752700932,-3.5875319348429286],[-9.933197023536339,9.05996425625171,0.0,-1.5481514039578563,-5.548129472684348,-6.0286703704690945],[4.026573339196565,3.50098606306212,0.0,-0.291716211594232,2.951020554827651,-1.2306012089653464],[9.14309277650046,0.8525557922749956,-3.796940383412621,9.695942608977385,-1.2592477690603268,4.4421459263955105]],[[-5.468734241345257,-0.9474600212124207,12.512211787375204,-4.435486728983259,-0.8694085645925238,3.5161877753227238],[-0.6134449919799003,7.611833823301729,1.897282568235937,0.7306254157240737,-0.7315903742163226,0.09568355129717432],[2.443933688223626,5.450249411426066,1.2420880472119435,-3.7438295253769525,2.3591000249527454,-2.9398375546573785],[5.779473300280033,6.028295345963961,3.303080358492161,-0.5416364937503104,-3.1795163251500815,-2.3317465914666604],[4.842911362554345,-0.5824911130135346,-2.7035741466964875,2.2009464551002713,0.13470428202891505,-0.9526074002377891],[-2.9401434414863195,-3.0943850458573667,-10.452631625742423,0.5089543385821464,0.7163803470246899,0.171126252756574]],[[0.0,0.0,0.0,0.0,0.0,0.0],[0.0,0.0,0.0,0.0,0.0,0.0],[0.0,0.0,0.0,0.0,0.0,0.0],[0.0,0.0,0.0,0.0,0.0,0.0],[0.0,0.0,0.0,0.0,0.0,0.0],[0.0,0.0,0.0,0.0,0.0,0.0]]],"mobp":0.8,"rate":0.009999999776482582,"layerErr":[[0.0,0.0,0.0,0.0,0.0],[0.0,0.0,0.0],[0.0,0.0]],"layer":[[1.0,1.0,1.0,0.8122166442871094,0.43560384114583334],[0.999998295463008,0.003557563116151614,0.47407487757408895],[0.20395112481194674,0.25251639707315104]]}