{"layer_weight":[[[13.835779722965164,-7.32078097359975,-2.3763532662072846,-2.2258878532238526,1.7249920251835205,1.7752379718331905],[14.92152217972372,13.39777315098969,-2.9359762145620927,0.0,-0.6945226595086655,1.9764533747320625],[2.246140324929452,-16.914298384659283,-0.24672318242439628,-4.9306004526603715,-6.667426024922224,-3.0378732464812543],[3.6966537524572063,6.0377780083231185,7.789241197122317,-2.754107091385678,1.121721740762319,-1.885429174133881],[13.674383012931969,-18.27816477914222,-17.431744520897272,0.2734657913390288,-7.949035747350971,-0.22752477103974655],[-19.97269594813555,7.803259050517598,7.513205588633245,-6.4000133264542844,-4.87274157136108,0.0]],[[-0.09170791090111052,1.2332968319798838,-1.970288181298855,-1.04255715139203,-1.5775405732917198,2.6184428480822914],[3.099417547314533,-10.335529632096254,0.03364185455031521,3.2073848959694944,-1.6825363506434146,7.314561880606153],[-2.8668684923196954,8.786890760372756,0.0,0.972497267349552,-2.2016162370796115,-3.816236556639005],[-0.8384663515699275,-2.3589070305355717,0.9171011099890221,-0.8673058317988129,-0.672862554857149,5.059114424510012],[0.0,0.0,7.857722941214914,3.294795715431797,-2.769562252176331,5.788660110632372],[-1.3374474846863587,6.0820475360865265,5.773945963291623,-2.2185308680373907,6.237735009272787,-4.503506771893915]],[[-0.1340530759002032,2.5687376150832932,4.932103126187418,-2.055863583019213,-3.1444880274478315,0.0],[-0.793694036580777,-1.4795544747408789,2.708511604003289,-4.620034851311315,3.3831819884574887,-2.3531209690915356],[1.7672615462985526,1.7770140299671473,0.0,8.047740243899865,-3.585165129194186,-0.7328903419329196],[-0.6212745164314022,-2.859549778801341,-2.0554772830599592,4.013649332040094,-1.3608854548500053,5.2897639442188],[3.563365375229705,0.0,0.0,3.9091138375008585,2.0609332285796933,-1.206698822260754],[-0.7138530165404751,9.221334604741848,3.46446030934115,0.09161877884571101,-7.169654374192557,2.0781492680317433]],[[-1.2300361409325014,2.1534004773677164,3.0863797951378,2.956737536361552,0.0,0.022946017365589988],[1.546458512669525,-3.980684511359561,5.457898464707041,3.5924656661090992,0.21414418879947306,2.4634332722280243],[-2.5543381874277475,4.451688769466383,3.387637230353925,-2.5479641678128564,-3.645923985893413,-3.987295807080253],[1.2041798360689988,-7.587304127368371,-0.7032820410187153,0.01840132814300599,-2.157847191342043,-4.647341410832955],[5.8417614105390205,-0.631160349601636,-1.624246554274519,0.0,-2.364829506652523,-2.4236533654274623],[-0.7707412769582458,-1.2488470672147818,-3.0057808458315955,3.661011789961959,8.34225424811608,0.5480109007690448]],[[-5.064751627311584,1.2415767224550427,0.608003433569249,0.9728290054755835,0.30405610776325087,-1.7886520318550678],[-1.3630390058300916,-3.2829320408002873,-3.3785904604979544,0.0,0.0,0.0],[-1.4534832919077205,-3.8548166754523967,2.6143869760630167,-3.277509535267072,-2.5731350990215667,3.9621875879343156],[2.5392504357973715,5.498382181619006,-1.1434536370287454,1.0973540404665085,0.0,0.9734170103494533],[-3.807841191075224,-2.1485169588624053,-1.1037428729574614,5.632092315888887,4.873999054899977,0.447067846742903],[-4.6231498594230365,-3.703785764772217,0.80346358624855,2.6576871360333305,-2.7291140059040604,0.8426119050317773]],[[0.0,0.0,0.0,0.0,0.0,0.0],[0.0,0.0,0.0,0.0,0.0,0.0],[0.0,0.0,0.0,0.0,0.0,0.0],[0.0,0.0,0.0,0.0,0.0,0.0],[0.0,0.0,0.0,0.0,0.0,0.0],[0.0,0.0,0.0,0.0,0.0,0.0]]],"layer_weight_delta":[[[5.294580197037327,-5.624314163611652,-1.1401039936502562,-2.1579300237668058,8.819048437585046,-2.990762039537593],[2.4543024101700492,1.407286075858889,0.3739186278843447,5.645044336785113,-0.32852654368058776,-1.847970663450825],[0.29266200056506797,1.5905859249173296E-5,7.304540019556264,3.028253180866929,-2.916987246103128,0.9488876378565676],[-4.264268003676358,-2.0944240638373133,2.431170389186536,2.09394796177318,2.493475578357403,3.4581048485710255],[-0.9944197583578567,-3.1994890060339016,-1.7137102505180373,-3.3045796078349747,0.0,0.0],[0.11977801375600641,0.8558505120457127,-1.8906459703395169,-2.1575976849965715,-2.092405151751425,1.8264290943426182]],[[-1.7053779845768073,3.901136063293354,2.255099068711286,1.4349466126928263,0.11040181489619183,4.258989953233766],[-1.3440264588867659,2.2338697488175296,0.793599467495663,-3.1445789618009696,-1.0895235242157595,3.299031422061753],[1.5416976468728314,-9.016201232762384,3.992670528924198,3.2164515282325263,0.13867064650085847,-0.19283403433725788],[2.6072758470002846,7.1291423555627045,3.062001804655835,-4.481494122815644,0.0,-7.362233734876908],[-1.881603176302054,-1.6100533469830314,1.3880778936208111,-0.30435052043932753,0.0,-3.832804256309454],[-2.6715976750768826,-7.02095271705045,0.0,-8.005903126618108,1.023110772399761,-1.606508714622012]],[[-2.1872929628068025,-4.407364142353736,-2.4458004200026826,0.0,0.7296277207403232,-3.3765080090511246],[-0.294326097046695,0.0,0.7606211327621715,0.0,3.7606062151624924,-7.389055312407853],[-2.0864749044132314,4.936551156729549,0.7670971348075,-0.5735842552790809,5.839091774429531,4.194829363720477],[-6.20908909775423,-0.3360741338510458,-5.237379012071293,-1.4304312391330605,-1.0967972189119992,-3.221644172009139],[0.0,-1.1545955701718977,-3.8172084065584997,1.8855338174587466,0.0,1.7269832258758635],[-4.83705322880896,2.471464752889534,0.7928646771165351,-0.5808746708887567,1.733690045579304,-6.301139898575188]],[[0.4565111978065941,1.5909692629524006,-1.0055589344910754,2.7961715136606813,2.7925380616393447,3.091969918141448],[3.7382304442680994,4.353131578496508,0.15625810685375185,-6.798829910238857,-3.4677114199519705,3.9514047622232553],[-1.871601925797826,0.0,-2.493190812287944,-4.053762397475662,-2.0171103517413824,0.0],[-3.942334563542439,2.950316623852971,-0.2627414553314589,2.9320330169084263,-6.064512744756529,1.7409272139881944],[-1.402582093772426,1.0025670068524493,-0.4811551460810586,1.976555870078454,0.0,-1.4990360381684429],[5.509983378058152,3.968187647458233,1.614403945925285,-5.6343177067034205,1.3895305415557813,0.0]],[[2.1080605302484905,-4.06249198197505,-2.1742008989117068,3.629368056406422,0.43711924210706155,-3.034216939274664],[-6.714651799930553,-0.6819114471232082,0.05709597872943295,-2.001218480123697,3.255102765906531,2.188561596180585],[3.5295345417236694,2.2953893542883748,0.5890142458542371,-0.023775563044399206,-1.9152671379584767,-3.2986195831866914],[-1.1436664444522417,3.008613249278543,-3.7012076667398537,-1.4739307316554262,-3.331338920792903,3.9504671132395375],[-3.512448482021698,-1.706431810725216,2.644778007970384,-0.16604504412552235,1.0820584004305678,-2.2212345275265113],[2.534522185352004,4.128193322328089,-5.973385590054246,3.925324374954844,0.9799137632239932,-4.979836714654507]],[[0.0,0.0,0.0,0.0,0.0,0.0],[0.0,0.0,0.0,0.0,0.0,0.0],[0.0,0.0,0.0,0.0,0.0,0.0],[0.0,0.0,0.0,0.0,0.0,0.0],[0.0,0.0,0.0,0.0,0.0,0.0],[0.0,0.0,0.0,0.0,0.0,0.0]]],"mobp":0.8,"rate":0.009999999776482582,"layerErr":[[0.0,0.0,0.0,0.0,0.0],[0.0,0.0,0.0],[0.0,0.0]],"layer":[[1.0,1.0,0.7094970703125,1.0,0.3491416549682617],[0.9999999934851809,0.8228410048380149,0.9765446027907548],[0.23514725936404351,0.2593562680564774]]}